digraph Tree {
node [shape=box] ;
0 [label="petal length (cm) <= 2.45\ngini = 0.6658\nsamples = 100\nvalue = [31, 35, 34]"] ;
1 [label="gini = 0.0\nsamples = 31\nvalue = [31, 0, 0]"] ;
0 -> 1 [labeldistance=2.5, labelangle=45, headlabel="True"] ;
2 [label="petal width (cm) <= 1.75\ngini = 0.4999\nsamples = 69\nvalue = [0, 35, 34]"] ;
0 -> 2 [labeldistance=2.5, labelangle=-45, headlabel="False"] ;
3 [label="petal length (cm) <= 5.35\ngini = 0.1884\nsamples = 38\nvalue = [0, 34, 4]"] ;
2 -> 3 ;
4 [label="petal width (cm) <= 1.65\ngini = 0.1049\nsamples = 36\nvalue = [0, 34, 2]"] ;
3 -> 4 ;
5 [label="petal length (cm) <= 4.95\ngini = 0.0571\nsamples = 34\nvalue = [0, 33, 1]"] ;
4 -> 5 ;
6 [label="gini = 0.0\nsamples = 32\nvalue = [0, 32, 0]"] ;
5 -> 6 ;
7 [label="petal length (cm) <= 5.05\ngini = 0.5\nsamples = 2\nvalue = [0, 1, 1]"] ;
5 -> 7 ;
8 [label="gini = 0.0\nsamples = 1\nvalue = [0, 0, 1]"] ;
7 -> 8 ;
9 [label="gini = 0.0\nsamples = 1\nvalue = [0, 1, 0]"] ;
7 -> 9 ;
10 [label="sepal width (cm) <= 2.75\ngini = 0.5\nsamples = 2\nvalue = [0, 1, 1]"] ;
4 -> 10 ;
11 [label="gini = 0.0\nsamples = 1\nvalue = [0, 0, 1]"] ;
10 -> 11 ;
12 [label="gini = 0.0\nsamples = 1\nvalue = [0, 1, 0]"] ;
10 -> 12 ;
13 [label="gini = 0.0\nsamples = 2\nvalue = [0, 0, 2]"] ;
3 -> 13 ;
14 [label="petal length (cm) <= 4.85\ngini = 0.0624\nsamples = 31\nvalue = [0, 1, 30]"] ;
2 -> 14 ;
15 [label="sepal width (cm) <= 3.1\ngini = 0.4444\nsamples = 3\nvalue = [0, 1, 2]"] ;
14 -> 15 ;
16 [label="gini = 0.0\nsamples = 2\nvalue = [0, 0, 2]"] ;
15 -> 16 ;
17 [label="gini = 0.0\nsamples = 1\nvalue = [0, 1, 0]"] ;
15 -> 17 ;
18 [label="gini = 0.0\nsamples = 28\nvalue = [0, 0, 28]"] ;
14 -> 18 ;
}